<?xml version="1.0"?>
<opencv_storage>
<stage6>
  <maxWeakCount>100</maxWeakCount>
  <stageThreshold>-7.7031838893890381e-01</stageThreshold>
  <weakClassifiers>
    <_>
      <internalNodes>
        0 -1 146991 6.2629170715808868e-02</internalNodes>
      <leafValues>
        -1.4408601820468903e-01 3.7150466442108154e-01</leafValues></_>
    <_>
      <internalNodes>
        0 -1 38905 -2.4588845670223236e-01</internalNodes>
      <leafValues>
        2.2543770074844360e-01 -1.4932033419609070e-01</leafValues></_>
    <_>
      <internalNodes>
        0 -1 11982 4.9575272947549820e-02</internalNodes>
      <leafValues>
        -8.6329020559787750e-02 4.0876099467277527e-01</leafValues></_>
    <_>
      <internalNodes>
        0 -1 25055 -5.8302087709307671e-03</internalNodes>
      <leafValues>
        2.5434428453445435e-01 -1.4317665994167328e-01</leafValues></_>
    <_>
      <internalNodes>
        0 -1 154046 -3.8167539983987808e-02</internalNodes>
      <leafValues>
        3.1449148058891296e-01 -1.3033343851566315e-01</leafValues></_>
    <_>
      <internalNodes>
        0 -1 4 -1.4983573055360466e-04</internalNodes>
      <leafValues>
        -2.4429289996623993e-01 1.4009948074817657e-01</leafValues></_>
    <_>
      <internalNodes>
        0 -1 4 6.9814588641747832e-05</internalNodes>
      <leafValues>
        1.9761277735233307e-01 -2.7532953023910522e-01</leafValues></_>
    <_>
      <internalNodes>
        0 -1 130189 5.2686943672597408e-03</internalNodes>
      <leafValues>
        -1.0802782326936722e-01 4.0180346369743347e-01</leafValues></_>
    <_>
      <internalNodes>
        0 -1 122999 -8.7489858269691467e-03</internalNodes>
      <leafValues>
        3.5443639755249023e-01 -5.0738845020532608e-02</leafValues></_>
    <_>
      <internalNodes>
        0 -1 139200 1.2108004011679441e-04</internalNodes>
      <leafValues>
        1.2702777981758118e-01 -2.1469520032405853e-01</leafValues></_>
    <_>
      <internalNodes>
        0 -1 143827 -1.7704730271361768e-04</internalNodes>
      <leafValues>
        1.3991390168666840e-01 -1.8489855527877808e-01</leafValues></_>
    <_>
      <internalNodes>
        0 -1 139124 5.1279990002512932e-03</internalNodes>
      <leafValues>
        -1.0709585994482040e-01 2.3209674656391144e-01</leafValues></_>
    <_>
      <internalNodes>
        0 -1 13712 -5.0144586712121964e-03</internalNodes>
      <leafValues>
        -3.5336759686470032e-01 7.0233680307865143e-02</leafValues></_>
    <_>
      <internalNodes>
        0 -1 49200 8.0547444522380829e-03</internalNodes>
      <leafValues>
        -9.8733849823474884e-02 3.1200078129768372e-01</leafValues></_>
    <_>
      <internalNodes>
        0 -1 114083 -8.4595195949077606e-04</internalNodes>
      <leafValues>
        -6.1874729394912720e-01 5.8394771069288254e-02</leafValues></_>
    <_>
      <internalNodes>
        0 -1 108630 -2.6346165686845779e-03</internalNodes>
      <leafValues>
        2.1367816627025604e-01 -1.2195407599210739e-01</leafValues></_>
    <_>
      <internalNodes>
        0 -1 106835 3.4250216558575630e-03</internalNodes>
      <leafValues>
        -9.7417332231998444e-02 2.8346025943756104e-01</leafValues></_>
    <_>
      <internalNodes>
        0 -1 73356 4.2331278324127197e-02</internalNodes>
      <leafValues>
        3.4868299961090088e-02 -6.2832462787628174e-01</leafValues></_>
    <_>
      <internalNodes>
        0 -1 111456 -1.8809769302606583e-02</internalNodes>
      <leafValues>
        -9.6042317152023315e-01 2.4485543370246887e-02</leafValues></_>
    <_>
      <internalNodes>
        0 -1 139076 -1.2607005191966891e-03</internalNodes>
      <leafValues>
        -7.6278853416442871e-01 2.4310048669576645e-02</leafValues></_>
    <_>
      <internalNodes>
        0 -1 113962 -5.2466534543782473e-04</internalNodes>
      <leafValues>
        1.9018921256065369e-01 -1.2962701916694641e-01</leafValues></_>
    <_>
      <internalNodes>
        0 -1 79895 1.8767123110592365e-03</internalNodes>
      <leafValues>
        4.8687547445297241e-02 -5.8366692066192627e-01</leafValues></_>
    <_>
      <internalNodes>
        0 -1 149282 1.2787820305675268e-03</internalNodes>
      <leafValues>
        -1.2692308425903320e-01 2.1235500276088715e-01</leafValues></_>
    <_>
      <internalNodes>
        0 -1 70956 -4.8545235767960548e-03</internalNodes>
      <leafValues>
        -3.8299217820167542e-01 6.4793281257152557e-02</leafValues></_>
    <_>
      <internalNodes>
        0 -1 51311 -1.0525180026888847e-02</internalNodes>
      <leafValues>
        3.0881309509277344e-01 -8.3156555891036987e-02</leafValues></_>
    <_>
      <internalNodes>
        0 -1 91963 -6.4174789004027843e-03</internalNodes>
      <leafValues>
        3.6978870630264282e-01 -6.7907907068729401e-02</leafValues></_>
    <_>
      <internalNodes>
        0 -1 142851 -8.6780767887830734e-03</internalNodes>
      <leafValues>
        -9.2855012416839600e-01 2.9711129143834114e-02</leafValues></_>
    <_>
      <internalNodes>
        0 -1 39909 -1.6729213297367096e-02</internalNodes>
      <leafValues>
        3.1253328919410706e-01 -8.6197726428508759e-02</leafValues></_>
    <_>
      <internalNodes>
        0 -1 161259 -2.8829354792833328e-02</internalNodes>
      <leafValues>
        1.9420240819454193e-01 -1.3048279285430908e-01</leafValues></_>
    <_>
      <internalNodes>
        0 -1 7213 1.5884040296077728e-01</internalNodes>
      <leafValues>
        -7.8772142529487610e-02 3.0109244585037231e-01</leafValues></_>
    <_>
      <internalNodes>
        0 -1 94431 3.6818228662014008e-02</internalNodes>
      <leafValues>
        6.9052994251251221e-02 -3.9422294497489929e-01</leafValues></_>
    <_>
      <internalNodes>
        0 -1 24431 -1.1375843314453959e-03</internalNodes>
      <leafValues>
        2.3414561152458191e-01 -1.2694308161735535e-01</leafValues></_>
    <_>
      <internalNodes>
        0 -1 49110 -9.0040648356080055e-03</internalNodes>
      <leafValues>
        -6.1591446399688721e-01 4.5422788709402084e-02</leafValues></_>
    <_>
      <internalNodes>
        0 -1 12289 -3.4962492063641548e-03</internalNodes>
      <leafValues>
        1.9256676733493805e-01 -1.3887245953083038e-01</leafValues></_>
    <_>
      <internalNodes>
        0 -1 70184 -1.1101348325610161e-02</internalNodes>
      <leafValues>
        2.3316998779773712e-01 -1.0737480223178864e-01</leafValues></_>
    <_>
      <internalNodes>
        0 -1 80205 1.1424893513321877e-02</internalNodes>
      <leafValues>
        -8.4385007619857788e-02 2.9434147477149963e-01</leafValues></_>
    <_>
      <internalNodes>
        0 -1 121298 1.3421734911389649e-04</internalNodes>
      <leafValues>
        1.2272626161575317e-01 -2.5443324446678162e-01</leafValues></_>
    <_>
      <internalNodes>
        0 -1 139152 -2.0785178639926016e-04</internalNodes>
      <leafValues>
        -2.7978098392486572e-01 8.6744621396064758e-02</leafValues></_>
    <_>
      <internalNodes>
        0 -1 136089 -8.1091903150081635e-02</internalNodes>
      <leafValues>
        -9.1517943143844604e-01 2.4156600236892700e-02</leafValues></_>
    <_>
      <internalNodes>
        0 -1 69196 8.7763398885726929e-02</internalNodes>
      <leafValues>
        2.2466378286480904e-02 -7.5186210870742798e-01</leafValues></_>
    <_>
      <internalNodes>
        0 -1 116387 9.3143746256828308e-02</internalNodes>
      <leafValues>
        2.8485327959060669e-02 -7.1830958127975464e-01</leafValues></_>
    <_>
      <internalNodes>
        0 -1 139152 1.6919405607040972e-04</internalNodes>
      <leafValues>
        9.9065728485584259e-02 -2.4078564345836639e-01</leafValues></_>
    <_>
      <internalNodes>
        0 -1 28015 1.1658182740211487e-01</internalNodes>
      <leafValues>
        3.0628500506281853e-02 -7.5415104627609253e-01</leafValues></_>
    <_>
      <internalNodes>
        0 -1 159736 1.3747936463914812e-04</internalNodes>
      <leafValues>
        9.9862001836299896e-02 -2.3573584854602814e-01</leafValues></_>
    <_>
      <internalNodes>
        0 -1 10032 1.0882206261157990e-02</internalNodes>
      <leafValues>
        -4.4612038880586624e-02 5.2466797828674316e-01</leafValues></_>
    <_>
      <internalNodes>
        0 -1 147834 1.8019413982983679e-04</internalNodes>
      <leafValues>
        -1.7610834538936615e-01 1.5533156692981720e-01</leafValues></_>
    <_>
      <internalNodes>
        0 -1 116880 -8.6754828691482544e-02</internalNodes>
      <leafValues>
        3.7024480104446411e-01 -7.3023632168769836e-02</leafValues></_>
    <_>
      <internalNodes>
        0 -1 138687 1.6878971830010414e-02</internalNodes>
      <leafValues>
        -6.1724953353404999e-02 3.9762988686561584e-01</leafValues></_>
    <_>
      <internalNodes>
        0 -1 133812 5.3025810047984123e-03</internalNodes>
      <leafValues>
        -8.6898468434810638e-02 2.7534827589988708e-01</leafValues></_>
    <_>
      <internalNodes>
        0 -1 118374 2.6042461395263672e-02</internalNodes>
      <leafValues>
        4.3919965624809265e-02 -5.6136041879653931e-01</leafValues></_>
    <_>
      <internalNodes>
        0 -1 157680 1.3074313756078482e-03</internalNodes>
      <leafValues>
        6.5402835607528687e-02 -3.3873161673545837e-01</leafValues></_>
    <_>
      <internalNodes>
        0 -1 106778 -3.0724073294550180e-03</internalNodes>
      <leafValues>
        3.2435545325279236e-01 -7.9971440136432648e-02</leafValues></_>
    <_>
      <internalNodes>
        0 -1 89245 -9.1619062004610896e-04</internalNodes>
      <leafValues>
        -5.7283353805541992e-01 4.3638575822114944e-02</leafValues></_>
    <_>
      <internalNodes>
        0 -1 19636 7.8099481761455536e-03</internalNodes>
      <leafValues>
        -8.2790650427341461e-02 2.8325253725051880e-01</leafValues></_>
    <_>
      <internalNodes>
        0 -1 126438 1.1108282487839460e-03</internalNodes>
      <leafValues>
        -1.9217610359191895e-01 1.2867286801338196e-01</leafValues></_>
    <_>
      <internalNodes>
        0 -1 139121 3.2731585670262575e-03</internalNodes>
      <leafValues>
        -1.0436591506004333e-01 2.3591610789299011e-01</leafValues></_>
    <_>
      <internalNodes>
        0 -1 15169 -1.7082266509532928e-02</internalNodes>
      <leafValues>
        2.3278519511222839e-01 -1.0527408868074417e-01</leafValues></_>
    <_>
      <internalNodes>
        0 -1 135497 -1.7313930438831449e-03</internalNodes>
      <leafValues>
        2.4620132148265839e-01 -1.0812820494174957e-01</leafValues></_>
    <_>
      <internalNodes>
        0 -1 74719 -6.8193003535270691e-02</internalNodes>
      <leafValues>
        3.5749625414609909e-02 -7.1440941095352173e-01</leafValues></_>
    <_>
      <internalNodes>
        0 -1 157191 -2.1315617486834526e-03</internalNodes>
      <leafValues>
        -3.6332580447196960e-01 6.5501809120178223e-02</leafValues></_>
    <_>
      <internalNodes>
        0 -1 148700 6.8198293447494507e-03</internalNodes>
      <leafValues>
        -1.2418357282876968e-01 1.9275923073291779e-01</leafValues></_>
    <_>
      <internalNodes>
        0 -1 78144 -3.0777726788073778e-03</internalNodes>
      <leafValues>
        1.3961431384086609e-01 -1.7470429837703705e-01</leafValues></_>
    <_>
      <internalNodes>
        0 -1 9052 3.3715814352035522e-02</internalNodes>
      <leafValues>
        -4.9480151385068893e-02 5.3048360347747803e-01</leafValues></_>
    <_>
      <internalNodes>
        0 -1 133669 -1.2080591113772243e-04</internalNodes>
      <leafValues>
        -2.3869834840297699e-01 1.0102409869432449e-01</leafValues></_>
    <_>
      <internalNodes>
        0 -1 36313 3.9331713924184442e-04</internalNodes>
      <leafValues>
        -1.6978454589843750e-01 1.3701015710830688e-01</leafValues></_>
    <_>
      <internalNodes>
        0 -1 48942 -1.3326132670044899e-02</internalNodes>
      <leafValues>
        -9.8279261589050293e-01 2.3320365697145462e-02</leafValues></_>
    <_>
      <internalNodes>
        0 -1 47236 -1.8357099965214729e-02</internalNodes>
      <leafValues>
        -1.9060963392257690e-01 1.1937081068754196e-01</leafValues></_>
    <_>
      <internalNodes>
        0 -1 45927 -1.5560644865036011e-01</internalNodes>
      <leafValues>
        3.7251830101013184e-01 -6.4499214291572571e-02</leafValues></_>
    <_>
      <internalNodes>
        0 -1 150547 1.8552904948592186e-02</internalNodes>
      <leafValues>
        -4.2831156402826309e-02 5.6470733880996704e-01</leafValues></_>
    <_>
      <internalNodes>
        0 -1 154942 6.6225149203091860e-04</internalNodes>
      <leafValues>
        8.5355386137962341e-02 -3.4316498041152954e-01</leafValues></_>
    <_>
      <internalNodes>
        0 -1 137882 -8.2405982539057732e-03</internalNodes>
      <leafValues>
        -8.2417351007461548e-01 2.5346264243125916e-02</leafValues></_>
    <_>
      <internalNodes>
        0 -1 148076 -4.3244399130344391e-03</internalNodes>
      <leafValues>
        2.1167497336864471e-01 -1.2103583663702011e-01</leafValues></_>
    <_>
      <internalNodes>
        0 -1 26228 7.2981238365173340e-02</internalNodes>
      <leafValues>
        3.4352514892816544e-02 -8.3406138420104980e-01</leafValues></_>
    <_>
      <internalNodes>
        0 -1 155063 1.2816614471375942e-03</internalNodes>
      <leafValues>
        -1.3853381574153900e-01 1.9514653086662292e-01</leafValues></_>
    <_>
      <internalNodes>
        0 -1 133594 -1.6046628297772259e-04</internalNodes>
      <leafValues>
        -2.6349970698356628e-01 9.4074994325637817e-02</leafValues></_>
    <_>
      <internalNodes>
        0 -1 103661 5.9527661651372910e-03</internalNodes>
      <leafValues>
        -6.0138665139675140e-02 4.5426201820373535e-01</leafValues></_>
    <_>
      <internalNodes>
        0 -1 143393 2.1835658699274063e-03</internalNodes>
      <leafValues>
        -9.4204030930995941e-02 2.3913078010082245e-01</leafValues></_>
    <_>
      <internalNodes>
        0 -1 133390 -2.4287881387863308e-05</internalNodes>
      <leafValues>
        1.6222786903381348e-01 -1.6053304076194763e-01</leafValues></_>
    <_>
      <internalNodes>
        0 -1 94829 -1.6258675605058670e-02</internalNodes>
      <leafValues>
        -4.5663568377494812e-01 5.2501596510410309e-02</leafValues></_>
    <_>
      <internalNodes>
        0 -1 87284 1.9247326999902725e-03</internalNodes>
      <leafValues>
        -1.5481060743331909e-01 2.0248766243457794e-01</leafValues></_>
    <_>
      <internalNodes>
        0 -1 106095 1.8488714704290032e-04</internalNodes>
      <leafValues>
        1.0685072839260101e-01 -2.6092487573623657e-01</leafValues></_>
    <_>
      <internalNodes>
        0 -1 157604 1.4516178634949028e-04</internalNodes>
      <leafValues>
        9.9690824747085571e-02 -2.3376250267028809e-01</leafValues></_>
    <_>
      <internalNodes>
        0 -1 152051 1.3289393857121468e-02</internalNodes>
      <leafValues>
        -4.1932482272386551e-02 6.0734957456588745e-01</leafValues></_>
    <_>
      <internalNodes>
        0 -1 103677 1.4766685664653778e-02</internalNodes>
      <leafValues>
        4.1578035801649094e-02 -6.8153685331344604e-01</leafValues></_>
    <_>
      <internalNodes>
        0 -1 108067 6.0912780463695526e-03</internalNodes>
      <leafValues>
        -8.0296024680137634e-02 3.2921290397644043e-01</leafValues></_>
    <_>
      <internalNodes>
        0 -1 159509 -2.5530334096401930e-03</internalNodes>
      <leafValues>
        2.7753692865371704e-01 -9.3386493623256683e-02</leafValues></_>
    <_>
      <internalNodes>
        0 -1 151063 -2.4401287373621017e-04</internalNodes>
      <leafValues>
        1.6623112559318542e-01 -1.5124082565307617e-01</leafValues></_>
    <_>
      <internalNodes>
        0 -1 98661 1.2706494890153408e-03</internalNodes>
      <leafValues>
        -8.5909277200698853e-02 2.8279754519462585e-01</leafValues></_>
    <_>
      <internalNodes>
        0 -1 138887 4.3255009222775698e-04</internalNodes>
      <leafValues>
        5.8340981602668762e-02 -4.5670843124389648e-01</leafValues></_>
    <_>
      <internalNodes>
        0 -1 83746 1.9374929368495941e-02</internalNodes>
      <leafValues>
        7.2515189647674561e-02 -3.3251959085464478e-01</leafValues></_>
    <_>
      <internalNodes>
        0 -1 116064 5.2771605551242828e-03</internalNodes>
      <leafValues>
        -7.3107346892356873e-02 3.9050522446632385e-01</leafValues></_>
    <_>
      <internalNodes>
        0 -1 128581 2.9850029386579990e-03</internalNodes>
      <leafValues>
        -1.1331035196781158e-01 2.4514849483966827e-01</leafValues></_>
    <_>
      <internalNodes>
        0 -1 79005 -1.6026398952817544e-05</internalNodes>
      <leafValues>
        1.3212873041629791e-01 -1.9206388294696808e-01</leafValues></_>
    <_>
      <internalNodes>
        0 -1 120568 -8.3863688632845879e-04</internalNodes>
      <leafValues>
        3.2648572325706482e-01 -7.6354086399078369e-02</leafValues></_>
    <_>
      <internalNodes>
        0 -1 59085 -2.3979764431715012e-02</internalNodes>
      <leafValues>
        -2.4442850053310394e-01 1.0604394227266312e-01</leafValues></_>
    <_>
      <internalNodes>
        0 -1 105779 2.3078419268131256e-02</internalNodes>
      <leafValues>
        8.6936295032501221e-02 -2.9366183280944824e-01</leafValues></_>
    <_>
      <internalNodes>
        0 -1 135042 2.2632200270891190e-03</internalNodes>
      <leafValues>
        2.8470838442444801e-02 -8.2989430427551270e-01</leafValues></_>
    <_>
      <internalNodes>
        0 -1 135042 -2.0214742980897427e-03</internalNodes>
      <leafValues>
        -6.8334120512008667e-01 3.0558148398995399e-02</leafValues></_>
    <_>
      <internalNodes>
        0 -1 68391 1.0659221559762955e-02</internalNodes>
      <leafValues>
        3.7942018359899521e-02 -5.6445139646530151e-01</leafValues></_>
    <_>
      <internalNodes>
        0 -1 33216 1.8583959899842739e-03</internalNodes>
      <leafValues>
        -1.0307446867227554e-01 2.2814403474330902e-01</leafValues></_></weakClassifiers></stage6>
</opencv_storage>
