<?xml version="1.0"?>
<opencv_storage>
<stage14>
  <maxWeakCount>100</maxWeakCount>
  <stageThreshold>-9.1767960786819458e-01</stageThreshold>
  <weakClassifiers>
    <_>
      <internalNodes>
        0 -1 37980 1.3817536819260567e-04</internalNodes>
      <leafValues>
        1.1609646677970886e-01 -2.3671497404575348e-01</leafValues></_>
    <_>
      <internalNodes>
        0 -1 39699 -2.1044332534074783e-03</internalNodes>
      <leafValues>
        1.3792321085929871e-01 -1.7303566634654999e-01</leafValues></_>
    <_>
      <internalNodes>
        0 -1 127659 -1.6937173204496503e-03</internalNodes>
      <leafValues>
        1.2769496440887451e-01 -1.6170269250869751e-01</leafValues></_>
    <_>
      <internalNodes>
        0 -1 121334 -2.2280105622485280e-04</internalNodes>
      <leafValues>
        -2.0574003458023071e-01 1.1537528038024902e-01</leafValues></_>
    <_>
      <internalNodes>
        0 -1 106960 -3.6451895721256733e-03</internalNodes>
      <leafValues>
        -3.6091020703315735e-01 2.6362115517258644e-02</leafValues></_>
    <_>
      <internalNodes>
        0 -1 23399 -7.1213826537132263e-02</internalNodes>
      <leafValues>
        6.8146757781505585e-02 -3.7094739079475403e-01</leafValues></_>
    <_>
      <internalNodes>
        0 -1 139334 -7.3255255818367004e-02</internalNodes>
      <leafValues>
        -2.2079935669898987e-01 1.1291685700416565e-01</leafValues></_>
    <_>
      <internalNodes>
        0 -1 20311 2.3577235639095306e-02</internalNodes>
      <leafValues>
        -5.0838984549045563e-02 4.9268212914466858e-01</leafValues></_>
    <_>
      <internalNodes>
        0 -1 120594 -2.7068764902651310e-03</internalNodes>
      <leafValues>
        3.2078948616981506e-01 -4.1382879018783569e-02</leafValues></_>
    <_>
      <internalNodes>
        0 -1 106346 -2.0928889513015747e-02</internalNodes>
      <leafValues>
        -3.8690236210823059e-01 3.1915336847305298e-02</leafValues></_>
    <_>
      <internalNodes>
        0 -1 37980 -8.3550869021564722e-05</internalNodes>
      <leafValues>
        -1.9901463389396667e-01 8.9779578149318695e-02</leafValues></_>
    <_>
      <internalNodes>
        0 -1 151575 5.5197282927110791e-04</internalNodes>
      <leafValues>
        4.1788514703512192e-02 -3.0640116333961487e-01</leafValues></_>
    <_>
      <internalNodes>
        0 -1 38185 -1.1728800088167191e-01</internalNodes>
      <leafValues>
        -7.2803670167922974e-01 2.9957642778754234e-02</leafValues></_>
    <_>
      <internalNodes>
        0 -1 53642 1.3179376721382141e-02</internalNodes>
      <leafValues>
        -6.0920227319002151e-02 3.0874013900756836e-01</leafValues></_>
    <_>
      <internalNodes>
        0 -1 162304 -3.7202925886958838e-04</internalNodes>
      <leafValues>
        -2.5117242336273193e-01 6.5977178514003754e-02</leafValues></_>
    <_>
      <internalNodes>
        0 -1 16714 -5.7553220540285110e-04</internalNodes>
      <leafValues>
        -1.5259698033332825e-01 1.1658573150634766e-01</leafValues></_>
    <_>
      <internalNodes>
        0 -1 150285 -3.4933284041471779e-05</internalNodes>
      <leafValues>
        1.0214513540267944e-01 -1.5271018445491791e-01</leafValues></_>
    <_>
      <internalNodes>
        0 -1 152184 -3.1420877203345299e-03</internalNodes>
      <leafValues>
        2.6607608795166016e-01 -5.3348921239376068e-02</leafValues></_>
    <_>
      <internalNodes>
        0 -1 158235 1.9501619972288609e-03</internalNodes>
      <leafValues>
        -1.0172356665134430e-01 2.0000681281089783e-01</leafValues></_>
    <_>
      <internalNodes>
        0 -1 67696 -1.1810315772891045e-03</internalNodes>
      <leafValues>
        1.5656834840774536e-01 -1.0973709821701050e-01</leafValues></_>
    <_>
      <internalNodes>
        0 -1 89046 -3.3750706352293491e-03</internalNodes>
      <leafValues>
        -8.0079096555709839e-01 3.0831547453999519e-02</leafValues></_>
    <_>
      <internalNodes>
        0 -1 157683 3.2462069066241384e-04</internalNodes>
      <leafValues>
        8.4883466362953186e-02 -2.0977935194969177e-01</leafValues></_>
    <_>
      <internalNodes>
        0 -1 118629 4.7170018660835922e-04</internalNodes>
      <leafValues>
        -7.5777061283588409e-02 2.3328965902328491e-01</leafValues></_>
    <_>
      <internalNodes>
        0 -1 88179 8.3402037620544434e-02</internalNodes>
      <leafValues>
        2.0982237532734871e-02 -8.0387723445892334e-01</leafValues></_>
    <_>
      <internalNodes>
        0 -1 62085 3.8071437738835812e-03</internalNodes>
      <leafValues>
        -5.7330120354890823e-02 3.0275031924247742e-01</leafValues></_>
    <_>
      <internalNodes>
        0 -1 150140 1.3550582807511091e-03</internalNodes>
      <leafValues>
        3.7687968462705612e-02 -3.8995763659477234e-01</leafValues></_>
    <_>
      <internalNodes>
        0 -1 35225 -3.7754129618406296e-02</internalNodes>
      <leafValues>
        -2.7487519383430481e-01 5.8754693716764450e-02</leafValues></_>
    <_>
      <internalNodes>
        0 -1 47322 1.1512478813529015e-02</internalNodes>
      <leafValues>
        -7.7263243496417999e-02 2.3772232234477997e-01</leafValues></_>
    <_>
      <internalNodes>
        0 -1 143028 -3.9739668136462569e-04</internalNodes>
      <leafValues>
        1.3872821629047394e-01 -1.2874948978424072e-01</leafValues></_>
    <_>
      <internalNodes>
        0 -1 123273 7.3656409978866577e-02</internalNodes>
      <leafValues>
        -1.1129426956176758e-01 1.4814515411853790e-01</leafValues></_>
    <_>
      <internalNodes>
        0 -1 26560 -3.0976079404354095e-02</internalNodes>
      <leafValues>
        2.0032714307308197e-01 -1.0724394768476486e-01</leafValues></_>
    <_>
      <internalNodes>
        0 -1 37976 1.0451542213559151e-02</internalNodes>
      <leafValues>
        -7.4920207262039185e-02 2.4026280641555786e-01</leafValues></_>
    <_>
      <internalNodes>
        0 -1 80513 -2.9205814935266972e-03</internalNodes>
      <leafValues>
        2.1436026692390442e-01 -9.9148973822593689e-02</leafValues></_>
    <_>
      <internalNodes>
        0 -1 98398 -2.0455448247957975e-04</internalNodes>
      <leafValues>
        -2.3706464469432831e-01 7.8974813222885132e-02</leafValues></_>
    <_>
      <internalNodes>
        0 -1 51797 -6.3567273318767548e-02</internalNodes>
      <leafValues>
        1.9278049468994141e-01 -1.0139124840497971e-01</leafValues></_>
    <_>
      <internalNodes>
        0 -1 133269 -5.5036100093275309e-04</internalNodes>
      <leafValues>
        1.7681474983692169e-01 -1.0923115909099579e-01</leafValues></_>
    <_>
      <internalNodes>
        0 -1 85646 -1.3570699095726013e-01</internalNodes>
      <leafValues>
        -5.5813062191009521e-01 3.9628766477108002e-02</leafValues></_>
    <_>
      <internalNodes>
        0 -1 89824 -1.0574837506283075e-04</internalNodes>
      <leafValues>
        -2.0343409478664398e-01 8.3453997969627380e-02</leafValues></_>
    <_>
      <internalNodes>
        0 -1 89824 2.0448907162062824e-04</internalNodes>
      <leafValues>
        9.3648873269557953e-02 -1.9070920348167419e-01</leafValues></_>
    <_>
      <internalNodes>
        0 -1 48995 -7.8418115153908730e-03</internalNodes>
      <leafValues>
        4.4491699337959290e-01 -4.1828587651252747e-02</leafValues></_>
    <_>
      <internalNodes>
        0 -1 137538 1.8263142555952072e-02</internalNodes>
      <leafValues>
        -3.4959003329277039e-02 4.2734137177467346e-01</leafValues></_>
    <_>
      <internalNodes>
        0 -1 136842 -2.7965783374384046e-04</internalNodes>
      <leafValues>
        1.3127349317073822e-01 -1.4020666480064392e-01</leafValues></_>
    <_>
      <internalNodes>
        0 -1 123922 1.2537563219666481e-02</internalNodes>
      <leafValues>
        -6.8460948765277863e-02 2.5921559333801270e-01</leafValues></_>
    <_>
      <internalNodes>
        0 -1 118364 -1.3237287290394306e-02</internalNodes>
      <leafValues>
        -4.5403742790222168e-01 4.2906731367111206e-02</leafValues></_>
    <_>
      <internalNodes>
        0 -1 28727 9.0318161528557539e-04</internalNodes>
      <leafValues>
        -9.7431793808937073e-02 1.8103490769863129e-01</leafValues></_>
    <_>
      <internalNodes>
        0 -1 114745 -1.5172796323895454e-02</internalNodes>
      <leafValues>
        1.7842000722885132e-01 -1.2544000148773193e-01</leafValues></_>
    <_>
      <internalNodes>
        0 -1 108029 4.3508959934115410e-03</internalNodes>
      <leafValues>
        -6.5570466220378876e-02 3.3573821187019348e-01</leafValues></_>
    <_>
      <internalNodes>
        0 -1 65072 -4.0463060140609741e-02</internalNodes>
      <leafValues>
        -3.9803767204284668e-01 5.3967814892530441e-02</leafValues></_>
    <_>
      <internalNodes>
        0 -1 74469 -3.0756727792322636e-03</internalNodes>
      <leafValues>
        2.8061893582344055e-01 -7.4990577995777130e-02</leafValues></_>
    <_>
      <internalNodes>
        0 -1 118650 -4.9681020900607109e-03</internalNodes>
      <leafValues>
        -4.9632632732391357e-01 3.8999192416667938e-02</leafValues></_>
    <_>
      <internalNodes>
        0 -1 144413 -1.7474720953032374e-03</internalNodes>
      <leafValues>
        2.1580088138580322e-01 -8.8205493986606598e-02</leafValues></_>
    <_>
      <internalNodes>
        0 -1 131173 -1.2526401877403259e-01</internalNodes>
      <leafValues>
        6.0357332229614258e-01 -3.0270645394921303e-02</leafValues></_>
    <_>
      <internalNodes>
        0 -1 137005 7.6090268790721893e-02</internalNodes>
      <leafValues>
        -1.9139522686600685e-02 9.3567770719528198e-01</leafValues></_>
    <_>
      <internalNodes>
        0 -1 121939 -3.3348281867802143e-03</internalNodes>
      <leafValues>
        2.2907729446887970e-01 -7.8494034707546234e-02</leafValues></_>
    <_>
      <internalNodes>
        0 -1 85012 2.3742092307657003e-03</internalNodes>
      <leafValues>
        8.1022046506404877e-02 -2.5136214494705200e-01</leafValues></_>
    <_>
      <internalNodes>
        0 -1 133791 -2.1715825423598289e-03</internalNodes>
      <leafValues>
        1.8959371745586395e-01 -9.4711735844612122e-02</leafValues></_>
    <_>
      <internalNodes>
        0 -1 150999 1.9256181549280882e-03</internalNodes>
      <leafValues>
        6.5301530063152313e-02 -2.9754683375358582e-01</leafValues></_>
    <_>
      <internalNodes>
        0 -1 46296 -4.3323948979377747e-02</internalNodes>
      <leafValues>
        6.3723939657211304e-01 -2.5852220132946968e-02</leafValues></_>
    <_>
      <internalNodes>
        0 -1 143862 2.9749597888439894e-03</internalNodes>
      <leafValues>
        -5.4005723446607590e-02 2.7982869744300842e-01</leafValues></_>
    <_>
      <internalNodes>
        0 -1 139133 -9.4609404914081097e-04</internalNodes>
      <leafValues>
        1.6125182807445526e-01 -1.2220028787851334e-01</leafValues></_>
    <_>
      <internalNodes>
        0 -1 127995 -1.5982639160938561e-04</internalNodes>
      <leafValues>
        -2.1449388563632965e-01 7.9949699342250824e-02</leafValues></_>
    <_>
      <internalNodes>
        0 -1 128030 1.5772487677168101e-04</internalNodes>
      <leafValues>
        8.1436760723590851e-02 -2.0021228492259979e-01</leafValues></_>
    <_>
      <internalNodes>
        0 -1 80757 1.2031441554427147e-02</internalNodes>
      <leafValues>
        -7.0967450737953186e-02 2.7001884579658508e-01</leafValues></_>
    <_>
      <internalNodes>
        0 -1 162110 -3.2139576971530914e-02</internalNodes>
      <leafValues>
        8.0213046073913574e-01 -2.0603727549314499e-02</leafValues></_>
    <_>
      <internalNodes>
        0 -1 36293 1.5950936824083328e-02</internalNodes>
      <leafValues>
        -4.1114900261163712e-02 3.6030659079551697e-01</leafValues></_>
    <_>
      <internalNodes>
        0 -1 4080 -3.4509648685343564e-04</internalNodes>
      <leafValues>
        -2.3647578060626984e-01 7.1983985602855682e-02</leafValues></_>
    <_>
      <internalNodes>
        0 -1 79061 -2.1989729255437851e-02</internalNodes>
      <leafValues>
        8.5670799016952515e-01 -1.8621634691953659e-02</leafValues></_>
    <_>
      <internalNodes>
        0 -1 110757 -6.3812779262661934e-03</internalNodes>
      <leafValues>
        -2.4369364976882935e-01 7.4614368379116058e-02</leafValues></_>
    <_>
      <internalNodes>
        0 -1 54416 -7.6641917228698730e-02</internalNodes>
      <leafValues>
        -6.6120636463165283e-01 2.1620759740471840e-02</leafValues></_>
    <_>
      <internalNodes>
        0 -1 87910 -1.2765122846758459e-05</internalNodes>
      <leafValues>
        1.0641532391309738e-01 -1.4965121448040009e-01</leafValues></_>
    <_>
      <internalNodes>
        0 -1 35651 -5.9993271715939045e-03</internalNodes>
      <leafValues>
        -1.5816029906272888e-01 1.0648632049560547e-01</leafValues></_>
    <_>
      <internalNodes>
        0 -1 154825 9.3607883900403976e-03</internalNodes>
      <leafValues>
        -1.1744669824838638e-01 1.4967365562915802e-01</leafValues></_>
    <_>
      <internalNodes>
        0 -1 107292 9.3294940888881683e-03</internalNodes>
      <leafValues>
        -8.5426755249500275e-02 2.4311146140098572e-01</leafValues></_>
    <_>
      <internalNodes>
        0 -1 134701 8.1004522508010268e-04</internalNodes>
      <leafValues>
        6.5534986555576324e-02 -2.8994324803352356e-01</leafValues></_>
    <_>
      <internalNodes>
        0 -1 140724 -5.1119117997586727e-03</internalNodes>
      <leafValues>
        3.3280044794082642e-01 -5.7335395365953445e-02</leafValues></_>
    <_>
      <internalNodes>
        0 -1 136547 5.6077092885971069e-03</internalNodes>
      <leafValues>
        -7.7405795454978943e-02 2.3484104871749878e-01</leafValues></_>
    <_>
      <internalNodes>
        0 -1 111265 1.7223760485649109e-02</internalNodes>
      <leafValues>
        7.6761350035667419e-02 -2.1397833526134491e-01</leafValues></_>
    <_>
      <internalNodes>
        0 -1 76955 -4.7654568334110081e-04</internalNodes>
      <leafValues>
        1.0746953636407852e-01 -1.6806788742542267e-01</leafValues></_>
    <_>
      <internalNodes>
        0 -1 57731 -2.0915591157972813e-03</internalNodes>
      <leafValues>
        -1.9733911752700806e-01 8.7756499648094177e-02</leafValues></_>
    <_>
      <internalNodes>
        0 -1 106763 -3.0818628147244453e-03</internalNodes>
      <leafValues>
        3.2300958037376404e-01 -5.7055599987506866e-02</leafValues></_>
    <_>
      <internalNodes>
        0 -1 6002 -4.0915258228778839e-02</internalNodes>
      <leafValues>
        2.3039254546165466e-01 -7.2693705558776855e-02</leafValues></_>
    <_>
      <internalNodes>
        0 -1 67203 2.8718769317492843e-04</internalNodes>
      <leafValues>
        -9.6712082624435425e-02 2.0055340230464935e-01</leafValues></_>
    <_>
      <internalNodes>
        0 -1 41 -2.7030702680349350e-02</internalNodes>
      <leafValues>
        3.7483215332031250e-01 -4.8496007919311523e-02</leafValues></_>
    <_>
      <internalNodes>
        0 -1 92962 -2.2235490381717682e-02</internalNodes>
      <leafValues>
        1.8635897338390350e-01 -9.1466292738914490e-02</leafValues></_>
    <_>
      <internalNodes>
        0 -1 50423 2.1237187320366502e-04</internalNodes>
      <leafValues>
        -1.2619328498840332e-01 1.3707712292671204e-01</leafValues></_>
    <_>
      <internalNodes>
        0 -1 28652 -7.2925664426293224e-05</internalNodes>
      <leafValues>
        -1.7283648252487183e-01 1.0258194804191589e-01</leafValues></_>
    <_>
      <internalNodes>
        0 -1 147450 1.5355572104454041e-03</internalNodes>
      <leafValues>
        -1.5793886780738831e-01 1.2042206525802612e-01</leafValues></_>
    <_>
      <internalNodes>
        0 -1 143737 -3.3104559406638145e-03</internalNodes>
      <leafValues>
        -7.8438431024551392e-01 2.1373521536588669e-02</leafValues></_>
    <_>
      <internalNodes>
        0 -1 162096 1.1746065865736455e-04</internalNodes>
      <leafValues>
        8.7177731096744537e-02 -1.8630351126194000e-01</leafValues></_>
    <_>
      <internalNodes>
        0 -1 124706 1.1973779648542404e-02</internalNodes>
      <leafValues>
        2.0350201055407524e-02 -8.4650754928588867e-01</leafValues></_>
    <_>
      <internalNodes>
        0 -1 70774 4.2859259992837906e-03</internalNodes>
      <leafValues>
        -8.1472873687744141e-02 2.2399266064167023e-01</leafValues></_>
    <_>
      <internalNodes>
        0 -1 69841 -5.2783285354962572e-05</internalNodes>
      <leafValues>
        1.2009885162115097e-01 -1.5670767426490784e-01</leafValues></_>
    <_>
      <internalNodes>
        0 -1 287 1.3832236640155315e-02</internalNodes>
      <leafValues>
        -1.0326699167490005e-01 1.6252329945564270e-01</leafValues></_>
    <_>
      <internalNodes>
        0 -1 129187 -5.1324523985385895e-02</internalNodes>
      <leafValues>
        -5.7994043827056885e-01 3.1560793519020081e-02</leafValues></_>
    <_>
      <internalNodes>
        0 -1 13396 -1.5519649605266750e-04</internalNodes>
      <leafValues>
        -2.1018128097057343e-01 7.9379945993423462e-02</leafValues></_>
    <_>
      <internalNodes>
        0 -1 93114 2.0626562181860209e-03</internalNodes>
      <leafValues>
        2.4003291502594948e-02 -7.1774762868881226e-01</leafValues></_>
    <_>
      <internalNodes>
        0 -1 43717 -1.5427474863827229e-03</internalNodes>
      <leafValues>
        1.6662314534187317e-01 -1.0101016610860825e-01</leafValues></_>
    <_>
      <internalNodes>
        0 -1 46127 2.0836916519328952e-04</internalNodes>
      <leafValues>
        -1.1663379520177841e-01 1.5455015003681183e-01</leafValues></_>
    <_>
      <internalNodes>
        0 -1 30527 2.6211632415652275e-02</internalNodes>
      <leafValues>
        2.6591982692480087e-02 -6.1099225282669067e-01</leafValues></_>
    <_>
      <internalNodes>
        0 -1 106632 -1.1902565602213144e-03</internalNodes>
      <leafValues>
        1.2077435106039047e-01 -1.3427437841892242e-01</leafValues></_></weakClassifiers></stage14>
</opencv_storage>
