<?xml version="1.0"?>
<opencv_storage>
<stage0>
  <maxWeakCount>22</maxWeakCount>
  <stageThreshold>-9.0201401710510254e-01</stageThreshold>
  <weakClassifiers>
    <_>
      <internalNodes>
        0 -1 37203 -4.3634511530399323e-02</internalNodes>
      <leafValues>
        -9.9160838127136230e-01 3.7974682450294495e-01</leafValues></_>
    <_>
      <internalNodes>
        0 -1 81422 -1.2342119216918945e-01</internalNodes>
      <leafValues>
        7.2413682937622070e-01 -4.7328522801399231e-01</leafValues></_>
    <_>
      <internalNodes>
        0 -1 63557 -3.0843621492385864e-01</internalNodes>
      <leafValues>
        2.9033100605010986e-01 -6.3930529356002808e-01</leafValues></_>
    <_>
      <internalNodes>
        0 -1 37963 -2.4160608649253845e-02</internalNodes>
      <leafValues>
        -1. 1.6870866715908051e-01</leafValues></_>
    <_>
      <internalNodes>
        0 -1 50222 -1.8989341333508492e-02</internalNodes>
      <leafValues>
        7.5643271207809448e-01 -2.5678926706314087e-01</leafValues></_>
    <_>
      <internalNodes>
        0 -1 63348 -2.1166142821311951e-01</internalNodes>
      <leafValues>
        -8.1673651933670044e-01 2.2721879184246063e-01</leafValues></_>
    <_>
      <internalNodes>
        0 -1 48826 -1.6969602555036545e-02</internalNodes>
      <leafValues>
        7.1322828531265259e-01 -2.9461789131164551e-01</leafValues></_>
    <_>
      <internalNodes>
        0 -1 133393 6.9190555950626731e-04</internalNodes>
      <leafValues>
        2.4888226389884949e-01 -7.8606772422790527e-01</leafValues></_>
    <_>
      <internalNodes>
        0 -1 87393 -3.2609128393232822e-03</internalNodes>
      <leafValues>
        3.5300207138061523e-01 -3.8121268153190613e-01</leafValues></_>
    <_>
      <internalNodes>
        0 -1 133393 -6.0090341139584780e-04</internalNodes>
      <leafValues>
        -7.5133436918258667e-01 1.8056955933570862e-01</leafValues></_>
    <_>
      <internalNodes>
        0 -1 61033 1.0936560109257698e-02</internalNodes>
      <leafValues>
        -2.0472459495067596e-01 7.1378749608993530e-01</leafValues></_>
    <_>
      <internalNodes>
        0 -1 154207 3.6611311137676239e-02</internalNodes>
      <leafValues>
        -1.9667695462703705e-01 5.8483767509460449e-01</leafValues></_>
    <_>
      <internalNodes>
        0 -1 159336 -6.0709388926625252e-03</internalNodes>
      <leafValues>
        4.6682274341583252e-01 -2.4719145894050598e-01</leafValues></_>
    <_>
      <internalNodes>
        0 -1 121045 7.0669199340045452e-04</internalNodes>
      <leafValues>
        1.4723457396030426e-01 -8.1510150432586670e-01</leafValues></_>
    <_>
      <internalNodes>
        0 -1 33311 6.2700212001800537e-03</internalNodes>
      <leafValues>
        -2.1480846405029297e-01 5.6347650289535522e-01</leafValues></_>
    <_>
      <internalNodes>
        0 -1 127848 -3.6827209987677634e-04</internalNodes>
      <leafValues>
        -6.1692774295806885e-01 1.6727221012115479e-01</leafValues></_>
    <_>
      <internalNodes>
        0 -1 133481 -2.5798948481678963e-02</internalNodes>
      <leafValues>
        9.2137712240219116e-01 -1.4133837819099426e-01</leafValues></_>
    <_>
      <internalNodes>
        0 -1 110449 -1.3855556026101112e-02</internalNodes>
      <leafValues>
        5.7259428501129150e-01 -1.9433994591236115e-01</leafValues></_>
    <_>
      <internalNodes>
        0 -1 40228 -4.1979479789733887e-01</internalNodes>
      <leafValues>
        1.8301619589328766e-01 -6.1681503057479858e-01</leafValues></_>
    <_>
      <internalNodes>
        0 -1 44460 6.2471274286508560e-03</internalNodes>
      <leafValues>
        -2.0066113770008087e-01 5.6096309423446655e-01</leafValues></_>
    <_>
      <internalNodes>
        0 -1 114083 9.1768306447193027e-04</internalNodes>
      <leafValues>
        1.2411205470561981e-01 -9.1781425476074219e-01</leafValues></_>
    <_>
      <internalNodes>
        0 -1 151638 1.1571817100048065e-02</internalNodes>
      <leafValues>
        -1.6203460097312927e-01 7.4436038732528687e-01</leafValues></_></weakClassifiers></stage0>
</opencv_storage>
